7 100
sent_0 -0.000919 0.002162 -0.005040 -0.001980 -0.003639 -0.004203 -0.003303 -0.001590 -0.001169 0.000360 -0.000641 0.002116 -0.003123 0.003772 -0.004529 0.001701 -0.000771 0.000682 -0.003741 -0.002868 0.002825 0.004893 -0.002121 0.001864 0.003816 0.003828 -0.004204 -0.004707 -0.003461 0.003898 -0.004042 -0.000764 0.004773 0.000278 0.001904 -0.001988 0.001675 0.003354 -0.004758 0.002681 0.004861 0.002474 -0.002241 0.002940 -0.004015 -0.000666 0.004270 -0.002130 -0.002207 -0.003734 -0.004915 0.001840 -0.002849 -0.002248 0.000112 -0.004602 0.000717 -0.003518 0.000972 0.001969 -0.004118 -0.000831 0.002093 -0.000805 -0.004778 0.000441 0.001709 0.000137 0.004536 0.000833 0.004212 -0.003565 -0.003668 0.003273 -0.001017 -0.003498 0.004528 -0.001433 0.002659 0.002217 0.003743 0.001190 0.002590 -0.001526 -0.002520 0.003846 -0.000665 0.004681 0.001817 0.001202 -0.004023 0.004663 -0.000672 0.000721 -0.001195 -0.002626 0.003984 0.000769 -0.005227 0.001354
sent_1 -0.002036 0.000313 0.004068 -0.001544 0.003859 0.001025 -0.004624 0.004457 0.001709 0.005048 -0.003012 -0.003268 0.003965 0.002027 -0.004075 0.002640 0.002789 0.004621 0.002097 -0.003667 -0.005251 -0.004767 -0.005410 -0.002241 0.003610 0.000304 0.000571 0.003729 -0.003854 -0.002167 0.001042 0.005021 0.001018 -0.004822 0.002856 -0.002569 0.002667 -0.001094 0.003553 0.002534 0.000638 -0.003708 -0.004397 -0.004200 -0.004495 -0.004153 -0.002856 0.002040 0.000447 -0.004745 -0.004809 0.004620 0.000646 -0.002408 -0.002308 0.002316 -0.003236 0.000830 0.004691 0.003187 -0.002768 0.000307 0.001560 0.003479 -0.003780 -0.004994 -0.004321 -0.000320 0.001262 0.000496 -0.001488 0.005204 0.001106 -0.001005 0.000772 0.002228 0.001834 -0.002244 -0.004504 -0.001459 0.001185 -0.002804 0.002655 -0.004389 -0.002803 0.003033 -0.003147 0.001548 0.000482 0.004486 -0.002668 -0.004110 0.002183 0.002938 0.003591 0.004224 -0.005143 -0.002696 0.000810 0.004482
sent_2 0.004472 0.000739 0.004365 0.001575 -0.000955 0.000294 0.001452 0.000388 0.003896 0.003650 -0.000963 0.005078 -0.003082 -0.004154 -0.004186 -0.000542 -0.004971 0.003714 0.003252 -0.004613 -0.003330 -0.001702 -0.002839 0.002900 -0.001582 0.004781 0.000392 0.003121 0.003575 0.004175 -0.000030 0.000088 0.002752 -0.002306 0.000621 0.000814 -0.004912 0.001024 -0.001062 0.004080 -0.002008 0.004383 0.001033 -0.002601 0.002677 0.001842 -0.004168 -0.001016 0.002278 0.003875 -0.004798 0.005364 -0.001565 0.004927 0.001260 0.003006 0.000680 0.001240 -0.001660 0.000815 0.002793 0.003482 0.002648 0.002391 0.003759 -0.001920 0.001879 -0.000321 -0.001080 -0.001750 -0.001670 -0.002293 0.000790 -0.000685 0.004722 0.001586 -0.003291 -0.001022 -0.001537 0.002866 0.003931 0.004132 0.001831 -0.002375 -0.002314 0.003685 0.000815 0.003685 0.000499 0.002532 0.000363 0.003021 0.000234 -0.000828 -0.001282 -0.004226 -0.001570 -0.004176 0.004748 -0.002727
sent_3 0.002928 0.003671 0.001751 0.000435 -0.003551 -0.000611 -0.001644 -0.002744 0.000989 -0.001581 0.004273 0.004032 -0.002728 -0.003577 -0.002725 0.000390 0.002489 -0.002361 -0.002555 0.003399 -0.000874 0.001274 -0.003268 -0.003746 0.000279 -0.000560 -0.003286 0.001632 0.000188 0.001461 -0.003721 0.002783 -0.002333 0.000375 0.002415 -0.004842 -0.001661 0.003725 0.003590 -0.000103 0.003880 0.004213 0.003167 0.003135 -0.004057 0.000985 0.001930 0.001291 0.002773 -0.004468 0.002448 0.001918 -0.002296 -0.002285 0.001251 -0.001555 0.002889 -0.000596 0.002707 0.004653 -0.002303 -0.003323 0.004122 0.000244 0.004449 0.001387 0.004871 0.000234 0.000297 -0.003326 -0.000890 -0.004254 -0.003062 0.002600 -0.004700 -0.001218 0.003921 0.002130 0.001963 -0.003154 -0.000613 0.000733 0.004811 -0.002889 -0.002698 -0.002465 0.002202 -0.000606 -0.004204 0.000067 -0.003017 0.002931 -0.001801 -0.004370 0.000567 0.003361 -0.001085 0.002619 -0.000134 0.000279
sent_4 0.004438 0.002958 -0.004697 0.001971 -0.000469 0.004284 -0.002847 -0.002397 -0.004323 -0.000705 -0.003713 0.001654 0.002737 0.002106 0.002909 -0.001519 0.003608 -0.000480 0.003040 0.001384 -0.003719 -0.004009 -0.005212 -0.004306 -0.000344 -0.004078 -0.004702 0.002490 -0.001188 0.002575 -0.000453 -0.000419 0.000137 -0.000293 0.002927 -0.001103 0.003894 -0.004578 0.002845 -0.003658 0.001287 -0.005013 0.000383 -0.005052 0.004423 0.003764 0.003112 0.004171 -0.003611 -0.003319 -0.003313 0.001134 0.004120 0.005110 0.002259 0.002210 0.004028 -0.000989 -0.002476 -0.003408 -0.003938 0.003297 -0.003311 -0.002351 0.002884 -0.001785 0.004856 -0.002416 0.000419 -0.001862 0.004342 -0.001153 -0.000549 0.000358 0.004394 -0.004840 0.002485 0.004016 -0.004505 0.000144 -0.001868 0.003566 0.000672 0.001961 -0.000713 0.001162 -0.002106 -0.004891 0.000923 -0.001910 -0.000022 0.004288 -0.000822 -0.002481 -0.001600 0.004219 0.004291 0.003520 0.003851 -0.002593
sent_5 -0.004092 -0.002562 -0.001695 -0.003181 0.001003 -0.000848 0.003415 -0.003046 0.001883 -0.002577 0.000852 -0.001184 -0.004560 -0.002849 0.001545 -0.000099 0.000154 -0.003244 0.000783 0.004979 0.002908 0.000858 0.004694 0.004110 0.000835 -0.004595 -0.004062 -0.004382 -0.000366 -0.001148 0.004891 -0.003236 0.004796 0.002564 0.003339 0.001341 0.001459 -0.000201 -0.004920 -0.001272 -0.000163 0.002373 -0.000215 -0.000427 -0.003481 -0.004799 0.002581 -0.001831 0.004823 -0.002737 -0.001815 0.000453 0.002530 -0.000117 -0.003577 -0.001902 -0.000126 0.001689 0.002692 -0.003723 -0.004690 0.000358 0.003172 -0.004701 0.001604 0.001840 -0.000372 0.004085 0.001476 -0.005275 -0.000178 0.003447 0.003341 0.001504 0.001891 0.000658 -0.002387 0.000567 0.001604 -0.001487 0.003600 -0.002841 0.002575 -0.002082 0.002611 -0.000616 0.003209 -0.001278 -0.002909 0.002875 -0.001985 0.002529 0.002314 -0.002890 -0.003042 -0.003076 -0.003818 -0.001326 -0.004729 -0.003927
sent_6 0.001735 0.002888 -0.004152 -0.002518 -0.002970 0.004271 0.002018 0.000478 -0.001939 0.003206 -0.000801 0.003998 0.002317 -0.000386 -0.003871 0.004567 -0.003455 -0.003304 -0.000632 -0.000891 -0.003249 0.002337 -0.002713 0.001336 0.002676 -0.002951 0.000996 0.002454 0.001318 0.000942 -0.002171 0.002279 0.004144 -0.000743 0.002857 -0.004561 0.003487 -0.003044 -0.001288 -0.001804 -0.004104 0.004257 -0.001321 0.000459 -0.000132 -0.003415 -0.002889 -0.004341 0.000336 -0.002551 -0.001175 -0.003775 0.002649 -0.004060 0.004718 -0.003232 0.000949 -0.004455 0.002954 -0.003091 0.000199 0.002167 -0.003610 0.000690 -0.002583 0.002457 0.002256 -0.003089 0.003663 -0.004542 0.003478 0.000487 -0.001271 0.002378 0.002002 0.004826 -0.002294 -0.005118 0.004368 0.003586 0.002308 0.000114 0.001958 0.002742 -0.001097 0.002551 0.002448 0.001279 -0.000925 0.001853 -0.004849 0.002692 0.003806 -0.002446 -0.003534 -0.002630 -0.001793 0.004061 0.000493 -0.001850
