7 100
sent_0 -0.000830 0.002203 -0.004999 -0.001977 -0.003532 -0.004077 -0.003137 -0.001544 -0.001032 0.000388 -0.000808 0.001852 -0.002955 0.003781 -0.004726 0.001705 -0.000827 0.000587 -0.003596 -0.003019 0.003007 0.004683 -0.001866 0.001923 0.003764 0.003946 -0.004150 -0.004609 -0.003302 0.003781 -0.004017 -0.000789 0.004579 0.000332 0.001919 -0.001845 0.001865 0.003346 -0.004817 0.002501 0.004889 0.002482 -0.002196 0.002893 -0.003968 -0.000521 0.004086 -0.002064 -0.002122 -0.003700 -0.004806 0.001788 -0.002884 -0.002345 -0.000084 -0.004466 0.000741 -0.003533 0.000893 0.001998 -0.003977 -0.000859 0.001944 -0.000858 -0.004500 0.000359 0.001638 0.000149 0.004446 0.000866 0.004034 -0.003625 -0.003607 0.003074 -0.001023 -0.003346 0.004275 -0.001522 0.002508 0.002260 0.003833 0.001237 0.002509 -0.001511 -0.002301 0.003959 -0.000719 0.004648 0.001634 0.001217 -0.003853 0.004495 -0.000501 0.000784 -0.000919 -0.002630 0.004034 0.000737 -0.004971 0.001171
sent_1 -0.001734 0.000271 0.003859 -0.001427 0.004085 0.001234 -0.004842 0.004294 0.001909 0.004973 -0.003277 -0.003629 0.004326 0.001968 -0.004340 0.002555 0.002539 0.004230 0.002115 -0.003757 -0.004801 -0.004738 -0.004717 -0.002538 0.003600 0.000388 0.000528 0.003420 -0.003758 -0.002208 0.000858 0.004696 0.000610 -0.004814 0.003006 -0.002670 0.003071 -0.001121 0.003635 0.002471 0.000562 -0.003635 -0.004401 -0.003787 -0.004554 -0.003925 -0.002743 0.002130 0.000597 -0.004874 -0.004280 0.004673 0.000681 -0.002967 -0.002477 0.002438 -0.003046 0.000814 0.004700 0.003468 -0.002602 -0.000062 0.001200 0.003290 -0.003432 -0.004814 -0.004300 -0.000137 0.001063 0.000689 -0.001826 0.004886 0.000797 -0.001199 0.000509 0.002453 0.001692 -0.002351 -0.004337 -0.001299 0.001297 -0.002898 0.002528 -0.004335 -0.002397 0.003048 -0.003066 0.001395 0.000247 0.004248 -0.002367 -0.004340 0.002351 0.002722 0.004078 0.004320 -0.004860 -0.002656 0.001168 0.004490
sent_2 0.004502 0.000567 0.004156 0.001416 -0.001100 -0.000140 0.001043 0.000495 0.004262 0.004187 -0.001051 0.004633 -0.003260 -0.003737 -0.003649 0.000057 -0.004785 0.004480 0.003271 -0.004850 -0.003238 -0.001679 -0.003690 0.003095 -0.001553 0.004401 0.000820 0.003788 0.003447 0.004054 -0.000401 0.000463 0.002986 -0.002143 -0.000097 0.000991 -0.004845 0.000935 -0.000663 0.003074 -0.001848 0.003929 0.000779 -0.003160 0.002879 0.001120 -0.004461 -0.000798 0.001791 0.004186 -0.004996 0.004768 -0.001234 0.004738 0.001047 0.003288 0.000747 0.001281 -0.002144 0.000868 0.002500 0.003583 0.002551 0.001981 0.003645 -0.001773 0.001708 -0.000491 -0.001179 -0.000892 -0.000985 -0.001826 0.001219 -0.000698 0.004738 0.001778 -0.003014 -0.000733 -0.001567 0.002976 0.003800 0.004038 0.001627 -0.002298 -0.002476 0.003549 0.000277 0.003022 0.000725 0.002331 0.000190 0.002709 0.000689 -0.000343 -0.001573 -0.004318 -0.001221 -0.004204 0.004828 -0.003184
sent_3 0.003119 0.003750 0.001884 0.000695 -0.003390 -0.000331 -0.001548 -0.002750 0.000925 -0.001877 0.004163 0.004096 -0.002429 -0.003891 -0.003070 -0.000004 0.002286 -0.002918 -0.002520 0.003517 -0.000842 0.001167 -0.002663 -0.003980 0.000159 -0.000229 -0.003473 0.001218 0.000440 0.001541 -0.003555 0.002515 -0.002780 0.000194 0.002853 -0.004777 -0.001756 0.003729 0.003447 0.000384 0.003666 0.004498 0.003264 0.003541 -0.004013 0.001513 0.002035 0.001102 0.002996 -0.004654 0.002702 0.002317 -0.002403 -0.002429 0.001323 -0.001547 0.002966 -0.000539 0.002827 0.004905 -0.001998 -0.003570 0.004013 0.000416 0.004747 0.001366 0.004939 0.000461 0.000264 -0.003646 -0.001443 -0.004738 -0.003396 0.002456 -0.004696 -0.001335 0.003623 0.001927 0.001909 -0.003114 -0.000581 0.000816 0.004898 -0.002961 -0.002523 -0.002378 0.002502 -0.000430 -0.004431 0.000085 -0.002880 0.002986 -0.002027 -0.004724 0.000934 0.003438 -0.001190 0.002499 0.000111 0.000410
sent_4 0.004594 0.003040 -0.004677 0.002094 -0.000350 0.004475 -0.002786 -0.002329 -0.004185 -0.000714 -0.003910 0.001338 0.003030 0.001968 0.002662 -0.001575 0.003459 -0.000712 0.003240 0.001265 -0.003566 -0.004216 -0.004817 -0.004333 -0.000414 -0.003867 -0.004722 0.002549 -0.001051 0.002469 -0.000476 -0.000499 -0.000219 -0.000260 0.003032 -0.000976 0.004047 -0.004629 0.002739 -0.003744 0.001185 -0.004896 0.000386 -0.004970 0.004512 0.004054 0.002960 0.004153 -0.003544 -0.003423 -0.003124 0.001225 0.004058 0.004900 0.002111 0.002318 0.004093 -0.000991 -0.002501 -0.003266 -0.003805 0.003126 -0.003532 -0.002357 0.003191 -0.001894 0.004824 -0.002334 0.000337 -0.001855 0.004108 -0.001334 -0.000664 0.000123 0.004389 -0.004691 0.002169 0.003910 -0.004727 0.000221 -0.001740 0.003595 0.000585 0.001902 -0.000471 0.001283 -0.002099 -0.004907 0.000768 -0.001886 0.000173 0.004164 -0.000735 -0.002526 -0.001287 0.004319 0.004369 0.003443 0.004202 -0.002721
sent_5 -0.004125 -0.002727 -0.001856 -0.003252 0.001071 -0.000864 0.003164 -0.003149 0.002019 -0.002596 0.000742 -0.001510 -0.004430 -0.002712 0.001641 -0.000027 0.000190 -0.003253 0.000707 0.004968 0.003168 0.000944 0.004760 0.004016 0.000956 -0.004676 -0.004064 -0.004346 -0.000483 -0.001246 0.004754 -0.003320 0.004728 0.002675 0.003242 0.001326 0.001687 -0.000231 -0.004869 -0.001470 -0.000079 0.002301 -0.000314 -0.000426 -0.003623 -0.004891 0.002583 -0.001800 0.004844 -0.002798 -0.001613 0.000239 0.002549 -0.000361 -0.003752 -0.001875 0.000045 0.001738 0.002701 -0.003697 -0.004771 0.000191 0.003100 -0.004874 0.001725 0.001868 -0.000508 0.004148 0.001444 -0.004948 -0.000156 0.003593 0.003304 0.001492 0.001737 0.000785 -0.002259 0.000605 0.001717 -0.001476 0.003558 -0.003050 0.002473 -0.002104 0.002738 -0.000723 0.003077 -0.001465 -0.002863 0.002673 -0.001914 0.002332 0.002445 -0.002786 -0.002859 -0.003011 -0.003575 -0.001229 -0.004734 -0.003891
sent_6 0.001746 0.002998 -0.004195 -0.002683 -0.002924 0.004173 0.002113 0.000539 -0.001955 0.003349 -0.000647 0.004235 0.002061 -0.000220 -0.003738 0.004760 -0.003402 -0.002974 -0.000688 -0.000958 -0.003532 0.002293 -0.003113 0.001439 0.002543 -0.002893 0.001010 0.002489 0.001382 0.000971 -0.002045 0.002316 0.004453 -0.000744 0.002822 -0.004439 0.003353 -0.003077 -0.001049 -0.001999 -0.004199 0.004046 -0.001298 0.000307 -0.000059 -0.003678 -0.002935 -0.004238 0.000079 -0.002385 -0.001429 -0.003919 0.002876 -0.003934 0.004857 -0.003228 0.000724 -0.004552 0.002871 -0.003104 0.000279 0.002401 -0.003501 0.000511 -0.002834 0.002592 0.002229 -0.003235 0.003620 -0.004802 0.003602 0.000589 -0.000968 0.002587 0.002169 0.004873 -0.002219 -0.004962 0.004339 0.003579 0.002289 0.000167 0.002070 0.002805 -0.001251 0.002703 0.002506 0.001132 -0.000981 0.001973 -0.004969 0.002749 0.003964 -0.002607 -0.003792 -0.002797 -0.001979 0.003830 0.000432 -0.002133
