28 100
the_DT 0.003657 -0.002935 0.000951 0.004162 0.000006 0.004137 -0.002575 0.000784 0.001706 -0.002733 -0.004404 -0.001180 0.004339 -0.001867 0.001895 -0.003888 -0.002439 -0.004211 0.001851 0.001572 0.002840 -0.002088 0.003537 -0.002836 -0.000516 -0.000778 -0.001824 -0.004928 0.000760 0.002588 0.000823 0.000562 -0.003970 -0.003333 0.000902 0.002660 -0.002368 0.000418 -0.000669 0.001183 -0.003365 -0.001585 -0.002771 0.004881 0.002358 -0.000165 0.001428 -0.003061 0.001151 -0.002471 0.004157 0.002528 0.000862 -0.004384 -0.000466 0.003981 0.004099 0.001352 -0.002449 0.001806 0.001048 -0.001235 -0.000867 0.001673 0.003402 0.002864 0.000644 0.004729 -0.004509 0.004569 -0.005774 -0.003068 -0.001890 -0.003696 0.000612 -0.003915 -0.002252 -0.004273 0.002942 0.002306 -0.000951 -0.002960 0.002470 -0.001904 0.003169 0.000221 0.000799 -0.004205 0.001005 -0.001293 -0.001543 -0.000544 -0.001351 -0.000613 0.005582 -0.001135 0.002639 0.000796 0.003628 -0.000257
and_CC -0.001973 -0.001290 -0.001866 -0.003589 0.000759 0.003369 0.004122 -0.000444 0.000743 -0.002831 -0.003356 -0.003837 0.002984 0.001683 -0.003972 -0.001649 0.000533 -0.004954 0.002510 0.001303 0.002085 0.001858 0.006652 0.000134 0.003738 -0.000129 0.000814 0.003269 0.001466 -0.001970 0.001405 -0.002301 -0.002576 0.001044 -0.002162 -0.000252 0.004852 -0.000925 -0.003606 0.000563 0.003432 0.003897 0.003245 -0.003566 -0.002846 0.005789 -0.003477 -0.000218 0.003742 -0.004108 0.002543 0.000321 -0.003792 0.003088 -0.003220 0.000766 0.002227 0.000372 0.002099 -0.003358 -0.001165 -0.000079 -0.001308 0.002100 0.004127 -0.003444 0.003503 -0.000738 0.004106 0.000519 0.001359 -0.000407 -0.000454 -0.001668 -0.004066 -0.000653 -0.003101 -0.004955 -0.002039 -0.002984 0.003919 -0.003958 -0.002975 0.001649 0.004517 -0.001758 -0.004043 0.004985 0.001276 -0.001863 0.000554 0.000886 -0.001505 0.003138 0.003277 0.004554 -0.001435 0.004403 -0.000082 0.001917
of_IN -0.003368 0.002829 -0.005166 -0.001673 0.004664 0.000753 0.003038 0.000910 0.002990 0.003752 -0.001503 -0.004282 0.002453 -0.000612 -0.004398 0.000531 -0.005280 -0.003501 0.002598 -0.005035 -0.001066 -0.004428 0.006344 0.000840 -0.001841 0.004637 -0.000182 -0.000638 0.000549 -0.002408 -0.001998 -0.002218 -0.003056 0.001089 0.002442 -0.004842 0.005562 0.002712 0.003037 0.002977 -0.004135 -0.000310 -0.000883 0.002348 -0.000764 0.002371 0.001973 0.002458 0.001699 -0.003558 0.002930 0.003164 0.003799 -0.003090 -0.003272 -0.001766 -0.002313 0.002917 0.001780 0.002826 -0.000308 -0.004789 -0.004461 -0.000895 -0.003070 0.003272 0.000576 0.002076 -0.000030 -0.004240 -0.003246 -0.000261 -0.003589 -0.004353 0.001946 0.003136 -0.001696 0.003618 -0.000395 0.004056 0.001911 0.000916 -0.003479 0.000119 0.004085 -0.001338 0.003688 0.004283 -0.001901 0.001982 0.004935 -0.004110 0.003849 -0.003156 0.003954 0.001814 -0.001595 -0.003344 0.001310 0.003984
in_IN 0.004441 0.001133 0.004271 0.001480 -0.000891 0.000109 0.001529 0.000650 0.003940 0.004299 -0.000838 0.004812 -0.003234 -0.003862 -0.004524 -0.000276 -0.005438 0.004180 0.003365 -0.005439 -0.003184 -0.001758 -0.002890 0.003451 -0.001837 0.005148 0.000708 0.003606 0.003690 0.004403 -0.000409 0.000046 0.002774 -0.002122 0.000516 0.000576 -0.004539 0.001201 -0.000619 0.003676 -0.002128 0.003861 0.000743 -0.002376 0.002906 0.001747 -0.004370 -0.000569 0.002077 0.004197 -0.005036 0.005279 -0.001261 0.004722 0.001363 0.003109 0.000348 0.001093 -0.001940 0.000907 0.002929 0.003525 0.002214 0.002238 0.003482 -0.001723 0.001758 -0.000486 -0.001170 -0.001674 -0.001658 -0.002000 0.000912 -0.000707 0.004971 0.002136 -0.003478 -0.000777 -0.001448 0.003372 0.004139 0.004474 0.001474 -0.002252 -0.002242 0.004148 0.000627 0.003522 0.000248 0.002957 0.000704 0.003011 0.000632 -0.000628 -0.001240 -0.004375 -0.001512 -0.004244 0.005198 -0.002929
HIT_NNP 0.002717 0.003264 -0.001110 -0.000446 0.003455 0.002442 0.004579 0.004835 -0.003057 -0.002660 0.002120 0.002391 0.001194 0.003684 -0.002741 -0.001675 -0.000479 -0.002030 0.000606 0.001540 -0.002582 -0.000339 0.005393 -0.001764 -0.004806 0.003566 0.000009 -0.004371 0.004139 -0.000931 0.004419 -0.001246 -0.004471 -0.002535 -0.001316 0.002589 -0.002938 -0.000650 0.003822 0.000269 -0.004173 -0.004806 0.002055 0.004909 0.002984 0.002824 0.001336 0.003120 -0.004520 -0.002174 0.002181 0.003648 0.001801 -0.003379 0.004392 0.003952 -0.004280 -0.003219 -0.002211 0.002501 0.004070 0.000709 -0.003320 -0.000834 -0.003355 0.004288 0.002608 0.000153 -0.000721 -0.004250 -0.002203 -0.004012 0.002814 0.000401 -0.002695 -0.002262 -0.002823 -0.001937 -0.001057 -0.001668 0.001984 -0.004484 -0.001847 0.002616 0.004630 0.003470 -0.002417 -0.002744 -0.003328 0.003810 -0.002239 0.002475 -0.002129 -0.004929 0.002608 0.002056 -0.004075 -0.001848 0.004861 -0.003613
to_TO -0.003975 -0.001945 0.001057 -0.001866 -0.000414 -0.001117 0.003036 -0.000726 -0.001612 0.002049 -0.002397 -0.000393 -0.002171 0.001430 0.003880 -0.000315 0.002869 -0.000018 0.001252 -0.003818 -0.000713 0.004162 0.000628 0.002841 0.000016 0.000065 0.003500 -0.004062 0.000505 0.004346 -0.000033 -0.003062 0.003591 -0.002239 0.001896 0.000216 0.004470 0.001405 0.003598 -0.004910 0.004967 -0.004385 -0.001918 0.004286 -0.004888 0.002995 0.003703 -0.000379 -0.002582 0.003233 -0.000511 -0.003794 0.004346 0.004003 -0.000092 0.003179 -0.001099 0.001870 -0.000959 0.000194 -0.003113 0.004441 -0.001991 -0.003993 -0.003921 -0.004736 0.001860 0.000528 0.003057 0.000087 0.003103 0.002259 0.002734 -0.000672 0.001541 -0.002995 -0.001378 -0.002682 -0.000882 -0.002461 -0.001147 0.004985 -0.001926 0.004723 0.000970 -0.001314 0.003531 0.001195 -0.002429 0.002962 -0.000464 -0.001489 -0.001574 0.002080 -0.002588 0.003027 -0.002033 0.000248 -0.000462 0.003693
research_NN -0.002262 0.000764 0.004301 0.001073 0.001661 -0.000042 0.005519 0.002484 -0.002158 0.001175 0.000916 0.004752 -0.002340 -0.004387 -0.004211 -0.001829 0.002927 -0.002829 0.001230 0.000886 -0.001270 -0.004466 0.003283 -0.001894 -0.001321 -0.000337 0.001340 -0.004792 0.000750 -0.004140 0.004903 0.000649 -0.001363 -0.003879 0.003091 0.003470 -0.002116 0.003141 -0.002354 0.006270 0.001614 0.001582 0.004525 -0.000938 0.004096 0.002788 0.003025 0.000608 0.003886 0.001683 -0.003724 0.002218 -0.002694 0.004323 -0.002343 -0.002608 -0.004850 -0.000845 0.001083 0.000699 0.004621 -0.001407 -0.000419 0.004321 0.000447 0.001555 -0.001900 -0.000064 0.001400 -0.005029 -0.005719 -0.004406 -0.000931 -0.004700 0.001461 -0.004161 -0.003010 -0.001057 -0.003447 -0.001969 -0.004543 0.005218 0.001498 -0.001262 -0.004712 -0.000530 0.000300 0.005319 -0.002627 0.002015 0.001972 -0.002429 -0.000591 0.002229 -0.003798 0.001090 -0.005331 -0.004784 -0.004318 0.000662
first_JJ 0.005251 0.001338 0.001693 0.000645 0.002275 0.002058 -0.003365 -0.001706 -0.000456 -0.004235 -0.001879 -0.003019 0.004353 -0.002394 -0.004900 -0.002212 0.000371 -0.006120 -0.002865 0.001514 0.003263 0.000789 0.006807 -0.003690 0.001834 0.005326 -0.004210 -0.004262 0.000974 -0.000924 0.002026 -0.005680 -0.004891 0.001668 0.006584 0.003632 0.005018 -0.003274 -0.003712 -0.002682 -0.000447 0.004062 0.000192 0.005289 -0.003319 0.005030 -0.002582 -0.004420 0.000362 -0.000336 0.005668 -0.002075 -0.002441 -0.005183 -0.001327 -0.002190 -0.000202 -0.001616 0.005042 0.003807 0.004556 -0.004663 0.000145 -0.002123 0.004047 -0.004388 -0.003632 -0.000470 -0.001542 -0.003389 -0.006568 -0.005251 -0.003320 0.004186 -0.003138 0.002624 -0.003741 -0.005668 -0.004600 -0.002818 0.000426 0.002917 0.002765 -0.001999 0.000795 0.004145 0.004525 -0.001252 -0.006235 -0.003943 0.003602 -0.002042 -0.000399 -0.004264 0.005289 0.000288 -0.000441 -0.002297 0.000998 -0.004444
a_DT -0.000619 0.001116 0.002457 0.003754 0.001702 -0.002573 0.004275 0.002740 -0.001902 -0.002054 0.003786 -0.003535 0.001340 -0.002573 0.003034 -0.001563 0.002220 -0.003297 -0.000176 0.003116 -0.000934 -0.003436 0.001663 0.002504 -0.002229 -0.000369 0.003892 0.003560 0.002230 0.000949 0.003238 0.004000 -0.005111 -0.001097 0.000859 0.002443 -0.004254 -0.000952 -0.002398 -0.000571 -0.000030 0.001885 0.000063 0.001321 0.000910 -0.000518 -0.004950 -0.003223 -0.001571 -0.003379 0.001017 0.001284 -0.000168 -0.001730 0.001538 -0.003124 -0.004872 0.002364 -0.000538 0.002099 -0.002907 -0.004454 -0.001135 0.002121 -0.003620 -0.003124 -0.000457 0.001269 0.002413 -0.004038 0.000916 -0.001439 0.001549 -0.002959 0.000333 -0.003283 -0.004980 -0.000273 -0.003242 0.001360 0.000343 0.003029 -0.000904 0.004693 0.000018 -0.000100 0.002665 0.000823 -0.001537 -0.000094 -0.003021 -0.000983 -0.004772 -0.000445 -0.002193 0.000145 -0.004763 0.000448 -0.001974 0.000646
China_NNP 0.002864 0.004041 0.002022 0.000745 -0.003325 -0.000225 -0.001137 -0.002657 0.000462 -0.001890 0.004467 0.004539 -0.002663 -0.003930 -0.003652 -0.000397 0.001870 -0.003076 -0.002507 0.003231 -0.000980 0.001365 -0.002182 -0.003748 0.000076 0.000140 -0.003612 0.000930 0.000413 0.002059 -0.003507 0.002234 -0.002739 0.000063 0.003291 -0.005364 -0.001749 0.004081 0.003389 0.001413 0.003547 0.004452 0.003216 0.004147 -0.004127 0.002005 0.002315 0.001300 0.003342 -0.004847 0.002390 0.003055 -0.002549 -0.002162 0.001684 -0.001820 0.002686 -0.000677 0.003169 0.004757 -0.001883 -0.003397 0.004028 0.000901 0.004340 0.001481 0.005202 0.000549 0.000495 -0.004273 -0.001802 -0.004790 -0.003760 0.002553 -0.004605 -0.001411 0.003456 0.001896 0.002284 -0.002852 -0.000328 0.000969 0.004919 -0.002900 -0.002469 -0.002110 0.002749 0.000206 -0.004549 0.000670 -0.002663 0.003540 -0.002402 -0.004922 0.000984 0.003489 -0.001522 0.002669 0.000042 0.001099
universities_NNS 0.004626 -0.002246 -0.001622 0.004648 0.003084 0.004111 -0.004753 -0.001229 -0.003102 -0.002155 0.002630 0.002622 -0.000470 -0.001437 0.000500 0.000049 0.000224 0.000925 -0.001151 0.002601 -0.002540 0.001779 0.004991 -0.004907 0.002257 -0.003642 0.000150 0.000884 -0.002761 0.004503 0.001235 -0.002945 0.002772 -0.003998 0.001027 -0.004517 0.000873 -0.002258 0.001331 0.002911 0.000163 0.001606 0.003011 0.003635 0.001015 -0.000124 -0.000605 0.003799 0.002227 -0.003322 0.000513 0.004541 -0.003662 0.003563 0.003542 -0.000406 -0.004827 -0.003757 0.004642 -0.004656 -0.001175 0.001278 -0.003023 0.005184 -0.003800 0.000401 0.001305 -0.002626 -0.000194 -0.000608 0.002420 0.001261 -0.000719 0.001890 -0.000440 0.000268 0.001575 -0.003213 0.003189 0.001215 0.004951 -0.002616 -0.000240 0.003965 0.000995 0.002536 -0.000504 0.002309 0.004406 -0.002612 0.003256 0.005136 -0.005155 -0.003120 -0.003806 0.002683 -0.004307 0.005154 -0.001255 0.004617
have_VBP 0.001585 0.002926 -0.004239 -0.002909 -0.003137 0.003908 0.002109 0.000604 -0.001900 0.003568 -0.000520 0.004314 0.001699 -0.000082 -0.003269 0.005042 -0.003262 -0.002511 -0.000586 -0.000961 -0.003558 0.002457 -0.003486 0.001637 0.002483 -0.003117 0.001135 0.002691 0.001227 0.000855 -0.002066 0.002494 0.004844 -0.000533 0.002276 -0.004361 0.003272 -0.003074 -0.000900 -0.002527 -0.004000 0.003804 -0.001263 -0.000092 0.000073 -0.004028 -0.002874 -0.003990 -0.000254 -0.002050 -0.001564 -0.004255 0.003021 -0.003572 0.004894 -0.003120 0.000571 -0.004609 0.002619 -0.003270 0.000042 0.002681 -0.003424 0.000295 -0.003046 0.002664 0.002349 -0.003390 0.003488 -0.004549 0.004161 0.000790 -0.000604 0.002644 0.002146 0.004896 -0.001983 -0.004689 0.004270 0.003389 0.002290 0.000158 0.001874 0.002921 -0.001346 0.002560 0.002303 0.001014 -0.000742 0.001957 -0.005083 0.002801 0.004070 -0.002355 -0.004246 -0.002861 -0.001859 0.003774 0.000293 -0.002363
for_IN -0.003338 -0.000615 0.003231 0.000719 -0.000439 -0.000126 0.000640 -0.000550 -0.003093 -0.003578 -0.003220 -0.004269 0.000285 0.003674 -0.001127 -0.004007 -0.000723 0.001413 -0.000821 0.002942 0.004237 0.003857 0.001587 -0.000157 0.001838 -0.004857 0.004860 -0.002946 0.003821 0.003071 0.002886 -0.002219 -0.002396 -0.000603 0.003160 -0.000726 0.004290 -0.001370 0.001426 0.004708 0.001558 -0.004727 -0.000431 -0.001939 0.000298 -0.002400 -0.003728 0.001914 0.001616 0.003812 -0.003872 0.002774 0.003366 0.001770 -0.002748 -0.002498 -0.000957 0.000416 -0.000245 -0.000480 0.003162 0.003799 0.003152 0.003691 0.000339 0.004688 0.001076 0.000902 -0.001681 0.001899 -0.003976 -0.003286 -0.003500 0.001701 -0.003149 -0.001454 -0.004141 -0.002272 0.004770 0.000150 -0.003475 0.000215 0.004142 0.003775 -0.001275 -0.002211 0.002412 -0.002480 -0.002134 -0.004112 0.003543 -0.000435 0.000646 0.002514 0.002571 -0.000576 -0.003049 0.003301 -0.004881 0.004600
has_VBZ -0.003605 0.001629 0.001980 -0.000370 -0.004288 0.000257 -0.000088 0.003008 -0.002876 -0.001463 -0.002298 0.002403 0.004924 -0.003655 0.002482 -0.003318 -0.004770 -0.004095 0.004236 0.003724 -0.002165 0.004504 0.004176 -0.000673 -0.000392 0.002004 -0.003825 -0.005396 -0.002341 -0.004440 0.001902 0.000145 -0.001941 0.002589 -0.002628 -0.002879 -0.002217 -0.002753 -0.004438 0.004967 -0.004275 0.002140 -0.003722 -0.003969 0.000303 0.004772 0.003840 -0.001809 -0.004233 0.002797 0.003037 0.004402 0.001250 0.003189 0.004355 -0.000886 0.000408 -0.000016 0.002424 0.001852 0.000525 0.003112 0.000216 0.003761 -0.002266 -0.003425 0.004678 0.002568 -0.002280 -0.000050 0.003689 -0.004523 -0.004713 0.001288 -0.002632 0.002586 0.000444 0.001448 -0.003742 -0.004015 0.001369 -0.000631 -0.003898 -0.001483 0.001646 -0.002675 0.004476 0.005239 0.004395 0.002715 -0.000669 0.002801 -0.002647 -0.002215 0.001311 0.000944 0.003497 -0.002436 0.002574 0.005060
with_IN -0.002246 0.004321 0.001232 0.004925 -0.004424 0.002444 0.000640 -0.000165 -0.002338 -0.001876 -0.002597 -0.003025 0.003200 -0.000022 -0.004465 0.002540 0.000153 0.002031 0.000152 -0.001056 0.005224 -0.004755 0.004944 0.004150 -0.001027 -0.002690 0.001046 -0.003406 0.003027 -0.002386 -0.002053 0.003866 0.003662 0.000359 0.003819 -0.001491 0.005212 -0.000558 -0.002160 -0.004401 0.004881 -0.000284 0.002318 0.001740 0.002112 -0.004170 0.004156 0.004320 0.000836 0.004439 -0.001871 0.001170 -0.001239 0.000996 -0.002154 0.003145 -0.004240 -0.004654 -0.004298 -0.003372 -0.000774 0.004321 -0.003995 0.001603 0.000583 -0.001440 -0.003059 -0.002630 -0.004681 0.002092 0.001025 -0.000730 0.001963 -0.003960 0.004146 0.003588 0.001366 -0.001399 -0.000702 -0.000050 0.004462 0.003563 -0.000167 0.000478 0.004028 0.004656 0.001468 0.002488 -0.001694 0.004119 0.003670 0.000471 0.003677 0.003362 0.003559 -0.003627 0.000415 0.004076 0.002866 -0.000714
programs_NNS 0.000173 -0.000995 0.002267 -0.000259 0.001127 0.005069 0.003031 -0.001595 -0.004561 -0.003368 0.000617 -0.000340 0.002852 0.004182 -0.003777 0.003161 0.004296 0.004255 -0.004689 -0.004492 -0.004974 -0.001636 -0.003865 -0.002060 -0.001483 0.004930 -0.000492 -0.002566 0.000011 0.001813 -0.003723 0.002237 0.003376 0.003218 0.004428 -0.001569 -0.000610 -0.003643 -0.002851 0.005601 -0.002186 0.004084 0.003889 0.004906 -0.003628 0.004353 0.001473 -0.002766 -0.001224 -0.003553 -0.000688 -0.003516 -0.003640 -0.002910 0.002275 0.000414 0.003498 -0.002802 0.001745 -0.004664 0.000430 0.003708 0.004820 -0.004416 -0.002649 -0.002752 -0.004348 -0.004753 0.000127 -0.005116 -0.002637 0.001210 -0.002398 -0.002060 0.000816 -0.001194 0.001827 -0.000193 0.001631 -0.001328 -0.001938 -0.003548 0.004425 0.003050 0.004369 -0.002748 0.004550 0.004786 -0.002373 -0.001749 0.000708 -0.002638 -0.001007 -0.003457 0.004573 0.000031 0.004342 0.001634 -0.000170 0.005187
university_NN -0.001783 0.000180 0.003775 -0.001588 0.004003 0.000958 -0.005017 0.004255 0.001937 0.005147 -0.003123 -0.003565 0.004026 0.002220 -0.004105 0.002844 0.002705 0.004715 0.001953 -0.003761 -0.004890 -0.004570 -0.005265 -0.002442 0.003684 0.000195 0.000673 0.003733 -0.003863 -0.002191 0.000777 0.004788 0.000966 -0.004727 0.002694 -0.002634 0.002972 -0.001181 0.003751 0.002222 0.000715 -0.003720 -0.004386 -0.004167 -0.004512 -0.004279 -0.002865 0.002246 0.000422 -0.004698 -0.004589 0.004415 0.000700 -0.002798 -0.002446 0.002404 -0.003102 0.000738 0.004607 0.003334 -0.002699 0.000108 0.001335 0.003177 -0.003582 -0.004758 -0.004382 -0.000344 0.001161 0.000891 -0.001403 0.005164 0.001043 -0.000969 0.000519 0.002512 0.001975 -0.002165 -0.004266 -0.001313 0.001263 -0.002959 0.002522 -0.004275 -0.002643 0.003015 -0.003325 0.001253 0.000441 0.004141 -0.002485 -0.004271 0.002456 0.002888 0.003716 0.004212 -0.004824 -0.002646 0.000963 0.004340
as_IN 0.004692 0.003147 -0.004514 0.002161 -0.000243 0.004608 -0.002547 -0.002248 -0.004070 -0.000769 -0.004057 0.001311 0.003170 0.001719 0.002409 -0.001733 0.003257 -0.000952 0.003443 0.001215 -0.003557 -0.004380 -0.004349 -0.004369 -0.000586 -0.003581 -0.004775 0.002214 -0.000863 0.002307 -0.000333 -0.000621 -0.000485 -0.000274 0.003179 -0.000836 0.004051 -0.004611 0.002636 -0.003591 0.000949 -0.004776 0.000471 -0.004791 0.004573 0.004330 0.002983 0.004083 -0.003499 -0.003324 -0.002905 0.001447 0.004062 0.004813 0.001994 0.002404 0.004008 -0.000939 -0.002485 -0.003053 -0.003530 0.003068 -0.003545 -0.002342 0.003312 -0.001899 0.004866 -0.002219 0.000117 -0.002076 0.003717 -0.001695 -0.000791 -0.000047 0.004354 -0.004633 0.001824 0.003781 -0.004965 0.000144 -0.001680 0.003704 0.000607 0.001800 -0.000288 0.001318 -0.001822 -0.004770 0.000537 -0.001802 0.000381 0.004009 -0.000684 -0.002726 -0.001038 0.004307 0.004256 0.003124 0.004410 -0.002817
Academy_NNP 0.000504 -0.001462 0.000866 0.004573 -0.001084 -0.001314 0.002415 0.001392 -0.000662 0.002137 -0.001195 -0.004116 -0.000399 -0.001615 -0.002635 0.004436 0.001762 0.001082 0.002465 0.000451 0.002369 0.004329 0.003567 -0.003296 -0.002282 -0.004566 0.004995 -0.002368 0.001679 -0.004220 -0.003098 -0.000022 -0.004102 -0.001001 0.000055 -0.001474 0.000788 0.000240 -0.000889 0.001307 0.001785 0.001791 0.000447 -0.001673 0.001346 0.003972 0.000814 0.004836 -0.000644 0.002590 -0.004446 0.002395 0.000429 -0.005246 -0.002516 0.000545 0.002786 -0.004304 0.000211 0.003236 0.001479 0.004022 -0.004483 -0.002430 0.004471 0.002845 0.000879 0.003366 0.003772 0.005348 0.005116 -0.003535 -0.004221 -0.004270 -0.004887 0.004948 -0.004003 0.003468 0.001832 0.000010 -0.001541 -0.001440 -0.002611 0.004003 0.002242 -0.004817 -0.000640 -0.002691 -0.004677 0.003512 0.002802 -0.001925 0.003311 -0.001534 -0.001871 0.004188 0.004926 0.000162 0.004691 0.003459
scientific_JJ -0.004180 -0.002445 -0.001785 -0.003217 0.001097 -0.000479 0.003536 -0.003070 0.001664 -0.002765 0.000953 -0.000950 -0.004493 -0.002827 0.001209 -0.000314 -0.000213 -0.003347 0.000817 0.004739 0.002849 0.001020 0.005085 0.004083 0.000818 -0.004151 -0.004411 -0.004674 -0.000527 -0.000949 0.004872 -0.003495 0.004900 0.002608 0.003673 0.000926 0.001565 -0.000077 -0.004983 -0.000571 -0.000408 0.002331 -0.000283 0.000057 -0.003749 -0.004488 0.002747 -0.001746 0.004966 -0.002944 -0.001751 0.000797 0.002410 -0.000112 -0.003301 -0.002086 -0.000111 0.001533 0.003026 -0.003910 -0.004618 0.000487 0.003238 -0.004564 0.001386 0.001898 -0.000268 0.004169 0.001434 -0.005654 -0.000481 0.003460 0.003029 0.001613 0.001874 0.000846 -0.002389 0.000566 0.001946 -0.001351 0.003828 -0.003112 0.002571 -0.002107 0.002853 -0.000405 0.003441 -0.000897 -0.002833 0.003135 -0.001801 0.002777 0.002176 -0.003181 -0.002772 -0.003058 -0.003723 -0.001190 -0.004697 -0.003422
are_VBP 0.000643 0.003696 0.001141 -0.002454 -0.001980 0.000290 0.004546 -0.003203 -0.000105 -0.001543 0.002985 0.003146 -0.000920 -0.002876 -0.004325 -0.003040 -0.002304 0.001056 0.003545 -0.003802 0.004730 0.001981 0.002511 0.004835 -0.000769 0.000292 0.001701 0.000125 -0.002274 -0.003715 -0.002198 0.002613 0.001549 0.003035 0.000217 -0.002970 0.001287 -0.001744 -0.004699 0.004307 -0.000622 -0.000814 0.002322 0.004678 -0.004403 -0.003255 -0.001634 -0.002279 0.000166 0.003158 0.003449 0.000998 -0.002795 -0.003074 0.002583 -0.002840 0.000282 0.002296 -0.002484 -0.003400 -0.004586 -0.003487 0.003510 -0.003748 -0.002884 -0.004607 0.001677 -0.002650 -0.000816 -0.003639 -0.001279 -0.000525 -0.000334 -0.000675 -0.004048 0.002834 -0.003421 -0.000613 -0.001872 -0.001820 0.001766 0.000130 -0.003113 -0.000245 -0.001607 0.002158 -0.002743 0.003589 0.000321 0.000146 -0.002337 -0.002936 -0.000399 0.004828 -0.003682 -0.002185 0.003081 0.001885 -0.002355 -0.001475
students_NNS 0.002721 0.001153 0.004123 0.000472 -0.003309 -0.001463 -0.001872 0.005003 -0.001030 0.005615 0.000465 -0.003384 -0.004810 -0.000866 -0.002874 0.002085 -0.000604 0.005807 0.004244 -0.003620 -0.001254 -0.000178 -0.000558 0.003163 -0.000111 -0.001302 -0.002030 0.004888 -0.005175 0.002926 -0.003475 0.002273 -0.000817 0.005134 -0.004722 -0.003247 0.003830 0.000876 -0.001491 -0.005842 -0.002479 -0.003965 -0.003185 0.002996 0.003914 0.001198 -0.000281 0.003643 -0.000626 -0.000963 -0.002685 0.003520 -0.000697 0.000265 -0.002493 0.003744 -0.001278 -0.001948 0.001835 -0.003274 -0.004360 0.003586 0.002419 0.000507 -0.003104 0.001456 0.001343 -0.001971 -0.004165 0.004412 0.000829 0.003380 -0.001984 0.001069 -0.000589 -0.000973 -0.003043 -0.001702 -0.004173 -0.001941 0.002184 0.001145 0.001271 -0.004740 0.001380 -0.000420 -0.003153 -0.003563 -0.002625 0.003368 0.004599 0.004016 -0.001124 0.003283 -0.000393 0.003083 0.000170 0.000837 0.002493 -0.004150
key_JJ -0.005051 -0.000248 0.001610 0.003476 -0.003106 0.003549 -0.001404 0.003863 -0.004964 -0.004266 0.005071 0.001170 -0.000966 -0.003250 0.001422 -0.004689 -0.001813 -0.001772 0.000873 0.001550 0.003625 0.004453 0.001760 0.000754 -0.000901 0.004663 -0.003550 0.003957 -0.002059 0.000607 0.001889 -0.002806 -0.003262 0.000101 0.003062 0.001808 -0.003724 0.004120 -0.000283 0.004637 0.000748 -0.004181 -0.002971 0.003699 0.001928 0.004024 -0.001720 0.000431 0.001674 0.000917 -0.002787 -0.000744 -0.002759 0.003542 0.004953 -0.004607 0.001991 -0.001924 0.001522 -0.002570 0.001593 -0.001275 -0.002056 0.004288 0.004387 0.001109 -0.002987 0.004364 0.002627 0.002423 -0.002937 0.003436 -0.002646 0.001527 0.001991 0.002530 -0.001023 0.002606 0.004250 0.000913 -0.004076 -0.003714 -0.003939 -0.003213 -0.003812 0.002966 -0.004645 -0.002512 0.003766 0.004792 0.001214 0.004947 -0.004699 0.004500 -0.001949 0.003015 0.003072 0.003819 -0.000620 0.004506
national_JJ 0.002349 -0.000547 0.001652 -0.002540 0.005077 -0.002496 0.004442 -0.002883 -0.000276 0.003054 0.002429 0.002169 -0.000672 0.002589 0.004088 -0.000641 0.000337 -0.004404 -0.001286 -0.000299 0.004032 -0.003809 0.002502 0.000383 0.001108 -0.004641 -0.003653 -0.002201 -0.005070 0.001833 0.003761 0.000344 0.000450 0.001164 -0.001796 -0.001463 0.000791 0.003185 -0.003051 -0.001528 0.002558 -0.001572 -0.004463 -0.003190 -0.003180 0.000085 0.001362 0.003936 0.004162 -0.002050 0.002515 -0.002153 -0.001552 -0.002054 -0.000721 -0.003096 -0.001959 -0.004032 0.004887 -0.000089 0.004335 0.002470 -0.000438 0.002699 0.001214 -0.001972 0.000141 0.002074 -0.001871 -0.005095 -0.002424 0.003015 0.004239 0.001408 -0.003782 0.002643 0.000315 0.002536 0.003796 0.004533 0.001600 0.003524 0.002478 0.002377 0.003605 0.004421 0.004077 -0.000936 -0.004231 0.003359 0.000523 0.000605 0.003101 -0.004805 0.003788 -0.004626 0.001888 0.001086 0.001290 -0.001071
its_PRP$ 0.004159 -0.001017 -0.004045 0.003616 0.000125 -0.001937 0.004615 0.004274 -0.002468 -0.003026 0.001110 0.003590 -0.001797 0.000795 -0.003248 -0.003079 0.002758 -0.003431 -0.002513 0.001976 -0.004797 -0.004588 -0.002283 -0.001592 -0.001362 0.002981 -0.004568 -0.001351 0.001354 -0.003483 0.003582 0.001508 -0.003727 -0.002915 0.002439 -0.000952 -0.000360 0.003937 -0.003634 0.004706 -0.004360 -0.003886 -0.002665 0.003043 -0.000497 0.001482 -0.003207 -0.003359 0.000332 0.002495 -0.000430 0.003561 0.001450 -0.002344 -0.002546 -0.001343 0.002549 0.004395 0.003612 -0.002428 -0.000871 0.001076 0.000604 -0.001045 -0.003908 0.002026 -0.004193 0.003608 0.003698 0.002041 -0.000135 0.002076 -0.000962 0.003018 0.002851 -0.003497 -0.001667 -0.001472 -0.001245 0.000607 -0.004696 0.001697 -0.002934 -0.000820 -0.000672 -0.001572 -0.001168 -0.003112 -0.004291 0.000479 0.000880 -0.003490 -0.002816 -0.002030 0.003133 -0.003517 0.000488 0.000747 -0.001729 -0.001406
was_VBD -0.000896 0.002233 -0.005190 -0.002010 -0.003498 -0.004172 -0.003248 -0.001530 -0.001133 0.000434 -0.000720 0.001857 -0.003008 0.003891 -0.004636 0.001739 -0.000895 0.000617 -0.003672 -0.002996 0.003028 0.004772 -0.001862 0.001947 0.003805 0.003902 -0.004212 -0.004587 -0.003419 0.003810 -0.003997 -0.000876 0.004666 0.000379 0.001889 -0.001978 0.001970 0.003348 -0.004770 0.002478 0.004881 0.002350 -0.002316 0.002849 -0.003950 -0.000630 0.004121 -0.001943 -0.002196 -0.003691 -0.004866 0.001780 -0.002788 -0.002316 -0.000006 -0.004621 0.000609 -0.003601 0.000976 0.001942 -0.004024 -0.000857 0.001834 -0.000839 -0.004704 0.000461 0.001622 0.000149 0.004485 0.000872 0.004198 -0.003517 -0.003611 0.003230 -0.001001 -0.003248 0.004396 -0.001392 0.002618 0.002373 0.003882 0.001246 0.002398 -0.001429 -0.002330 0.004038 -0.000733 0.004616 0.001721 0.001221 -0.003800 0.004598 -0.000482 0.000740 -0.001016 -0.002682 0.004056 0.000792 -0.005075 0.001229
by_IN -0.002629 0.004204 -0.004525 0.004517 0.000504 -0.001222 0.004982 -0.004390 0.000050 -0.004654 0.000775 -0.003104 0.001241 0.004744 0.003614 -0.000526 0.001948 0.002791 -0.000037 0.000216 -0.003466 -0.001245 -0.003450 0.002373 -0.000245 -0.000463 0.003835 0.000245 -0.000907 -0.002237 -0.004277 -0.000874 -0.004641 -0.002047 0.000136 0.004475 -0.003803 0.001765 -0.000014 0.002896 -0.003553 -0.004172 -0.001003 0.003046 -0.003055 0.002692 -0.002036 -0.002735 -0.004759 -0.000913 -0.001270 0.001704 -0.004273 -0.003326 -0.004739 -0.003935 0.001384 -0.001020 -0.001732 0.000487 0.004924 0.003403 0.001960 0.004267 -0.004694 -0.004260 -0.000230 -0.001540 0.004341 -0.000212 0.000382 0.003943 -0.000604 0.003805 -0.002383 -0.002159 -0.001728 0.000502 -0.002731 0.001754 -0.003481 -0.003928 0.003644 -0.002600 -0.001156 0.000794 0.000339 -0.004071 0.003723 0.004605 0.003243 -0.002033 0.000253 -0.001589 0.000492 0.004683 -0.001940 0.001735 -0.001772 0.002853
In_NNP -0.001850 0.003959 0.002553 0.002658 -0.000324 -0.002962 -0.004651 -0.001818 -0.004774 0.001913 0.001801 -0.000601 0.002602 0.000342 -0.004711 -0.003764 -0.003145 -0.001693 -0.004598 0.001004 0.000154 0.001318 -0.000600 0.003524 -0.000386 -0.004714 0.003646 0.001472 0.003153 0.004701 -0.004507 -0.002794 -0.004325 -0.000805 0.003824 -0.004332 -0.000227 -0.003633 0.002682 0.003664 -0.004487 -0.000102 -0.002684 0.004695 0.004327 0.001256 0.004817 -0.001562 0.004068 -0.000667 -0.002742 0.004532 0.001756 -0.004260 0.003790 0.001821 0.000964 0.002285 -0.002299 0.001024 0.003173 -0.004489 -0.003664 0.003582 0.001070 0.000261 -0.002536 -0.002024 0.003834 -0.000893 -0.004427 0.003967 -0.003119 0.003409 0.003839 -0.000135 0.001044 0.000267 0.001359 0.003622 -0.002151 0.003974 0.000711 -0.003878 -0.002840 0.001067 -0.002494 -0.003502 -0.003378 0.003534 0.001106 0.004792 -0.001677 0.000938 0.000976 0.001149 -0.004468 0.002553 0.004345 0.000584
